digraph Tree {
node [shape=box, style="filled", color="black", fontname="helvetica"] ;
edge [fontname="helvetica"] ;
0 [label="RM <= 6.971\nsquared_error = 89.139\nsamples = 295\nvalue = 22.353", fillcolor="#f5ceb3"] ;
1 [label="LSTAT <= 15.0\nsquared_error = 37.653\nsamples = 252\nvalue = 19.51", fillcolor="#f7d6bf"] ;
0 -> 1 [labeldistance=2.5, labelangle=45, headlabel="True"] ;
2 [label="RM <= 6.543\nsquared_error = 20.807\nsamples = 157\nvalue = 22.756", fillcolor="#f5cdb1"] ;
1 -> 2 ;
3 [label="DIS <= 1.291\nsquared_error = 15.556\nsamples = 123\nvalue = 21.454", fillcolor="#f5d1b7"] ;
2 -> 3 ;
4 [label="squared_error = 0.0\nsamples = 1\nvalue = 50.0", fillcolor="#e58139"] ;
3 -> 4 ;
5 [label="LSTAT <= 7.845\nsquared_error = 8.949\nsamples = 122\nvalue = 21.22", fillcolor="#f6d2b8"] ;
3 -> 5 ;
6 [label="DIS <= 3.792\nsquared_error = 1.959\nsamples = 21\nvalue = 23.762", fillcolor="#f4caac"] ;
5 -> 6 ;
7 [label="B <= 364.63\nsquared_error = 1.389\nsamples = 3\nvalue = 25.833", fillcolor="#f3c5a3"] ;
6 -> 7 ;
8 [label="squared_error = 0.0\nsamples = 1\nvalue = 27.5", fillcolor="#f2c09c"] ;
7 -> 8 ;
9 [label="squared_error = 0.0\nsamples = 2\nvalue = 25.0", fillcolor="#f3c7a7"] ;
7 -> 9 ;
10 [label="PTRATIO <= 19.65\nsquared_error = 1.219\nsamples = 18\nvalue = 23.417", fillcolor="#f4cbae"] ;
6 -> 10 ;
11 [label="TAX <= 257.0\nsquared_error = 0.699\nsamples = 13\nvalue = 23.846", fillcolor="#f4caac"] ;
10 -> 11 ;
12 [label="ZN <= 10.0\nsquared_error = 0.202\nsamples = 2\nvalue = 24.85", fillcolor="#f4c7a8"] ;
11 -> 12 ;
13 [label="squared_error = 0.0\nsamples = 1\nvalue = 25.3", fillcolor="#f3c6a6"] ;
12 -> 13 ;
14 [label="squared_error = -0.0\nsamples = 1\nvalue = 24.4", fillcolor="#f4c9aa"] ;
12 -> 14 ;
15 [label="RM <= 6.405\nsquared_error = 0.573\nsamples = 11\nvalue = 23.664", fillcolor="#f4cbad"] ;
11 -> 15 ;
16 [label="ZN <= 12.5\nsquared_error = 0.499\nsamples = 8\nvalue = 23.388", fillcolor="#f4ccae"] ;
15 -> 16 ;
17 [label="TAX <= 367.5\nsquared_error = 0.027\nsamples = 3\nvalue = 22.8", fillcolor="#f5cdb1"] ;
16 -> 17 ;
18 [label="RM <= 6.188\nsquared_error = 0.01\nsamples = 2\nvalue = 22.9", fillcolor="#f5cdb0"] ;
17 -> 18 ;
19 [label="squared_error = 0.0\nsamples = 1\nvalue = 22.8", fillcolor="#f5cdb1"] ;
18 -> 19 ;
20 [label="squared_error = 0.0\nsamples = 1\nvalue = 23.0", fillcolor="#f5cdb0"] ;
18 -> 20 ;
21 [label="squared_error = -0.0\nsamples = 1\nvalue = 22.6", fillcolor="#f5ceb2"] ;
17 -> 21 ;
22 [label="AGE <= 42.55\nsquared_error = 0.45\nsamples = 5\nvalue = 23.74", fillcolor="#f4cbad"] ;
16 -> 22 ;
23 [label="AGE <= 31.75\nsquared_error = 0.342\nsamples = 4\nvalue = 23.95", fillcolor="#f4caac"] ;
22 -> 23 ;
24 [label="B <= 385.805\nsquared_error = 0.062\nsamples = 2\nvalue = 23.45", fillcolor="#f4cbae"] ;
23 -> 24 ;
25 [label="squared_error = 0.0\nsamples = 1\nvalue = 23.7", fillcolor="#f4cbad"] ;
24 -> 25 ;
26 [label="squared_error = -0.0\nsamples = 1\nvalue = 23.2", fillcolor="#f4ccaf"] ;
24 -> 26 ;
27 [label="AGE <= 35.3\nsquared_error = 0.122\nsamples = 2\nvalue = 24.45", fillcolor="#f4c9a9"] ;
23 -> 27 ;
28 [label="squared_error = 0.0\nsamples = 1\nvalue = 24.8", fillcolor="#f4c8a8"] ;
27 -> 28 ;
29 [label="squared_error = -0.0\nsamples = 1\nvalue = 24.1", fillcolor="#f4caab"] ;
27 -> 29 ;
30 [label="squared_error = 0.0\nsamples = 1\nvalue = 22.9", fillcolor="#f5cdb0"] ;
22 -> 30 ;
31 [label="NOX <= 0.422\nsquared_error = 0.027\nsamples = 3\nvalue = 24.4", fillcolor="#f4c9aa"] ;
15 -> 31 ;
32 [label="squared_error = 0.0\nsamples = 1\nvalue = 24.2", fillcolor="#f4c9ab"] ;
31 -> 32 ;
33 [label="RM <= 6.459\nsquared_error = 0.01\nsamples = 2\nvalue = 24.5", fillcolor="#f4c8a9"] ;
31 -> 33 ;
34 [label="squared_error = 0.0\nsamples = 1\nvalue = 24.6", fillcolor="#f4c8a9"] ;
33 -> 34 ;
35 [label="squared_error = 0.0\nsamples = 1\nvalue = 24.4", fillcolor="#f4c9aa"] ;
33 -> 35 ;
36 [label="CRIM <= 0.044\nsquared_error = 0.844\nsamples = 5\nvalue = 22.3", fillcolor="#f5cfb3"] ;
10 -> 36 ;
37 [label="squared_error = 0.0\nsamples = 1\nvalue = 20.7", fillcolor="#f6d3ba"] ;
36 -> 37 ;
38 [label="AGE <= 33.7\nsquared_error = 0.255\nsamples = 4\nvalue = 22.7", fillcolor="#f5cdb1"] ;
36 -> 38 ;
39 [label="NOX <= 0.495\nsquared_error = 0.01\nsamples = 2\nvalue = 23.2", fillcolor="#f4ccaf"] ;
38 -> 39 ;
40 [label="squared_error = 0.0\nsamples = 1\nvalue = 23.3", fillcolor="#f4ccae"] ;
39 -> 40 ;
41 [label="squared_error = -0.0\nsamples = 1\nvalue = 23.1", fillcolor="#f5ccaf"] ;
39 -> 41 ;
42 [label="DIS <= 6.842\nsquared_error = 0.0\nsamples = 2\nvalue = 22.2", fillcolor="#f5cfb3"] ;
38 -> 42 ;
43 [label="squared_error = 0.0\nsamples = 1\nvalue = 22.2", fillcolor="#f5cfb3"] ;
42 -> 43 ;
44 [label="squared_error = 0.0\nsamples = 1\nvalue = 22.2", fillcolor="#f5cfb3"] ;
42 -> 44 ;
45 [label="TAX <= 208.0\nsquared_error = 8.781\nsamples = 101\nvalue = 20.692", fillcolor="#f6d3ba"] ;
5 -> 45 ;
46 [label="CRIM <= 0.069\nsquared_error = 31.135\nsamples = 6\nvalue = 25.983", fillcolor="#f3c4a3"] ;
45 -> 46 ;
47 [label="AGE <= 65.5\nsquared_error = 10.89\nsamples = 2\nvalue = 32.9", fillcolor="#efb184"] ;
46 -> 47 ;
48 [label="squared_error = 0.0\nsamples = 1\nvalue = 36.2", fillcolor="#eda876"] ;
47 -> 48 ;
49 [label="squared_error = -0.0\nsamples = 1\nvalue = 29.6", fillcolor="#f1ba93"] ;
47 -> 49 ;
50 [label="B <= 390.075\nsquared_error = 5.377\nsamples = 4\nvalue = 22.525", fillcolor="#f5ceb2"] ;
46 -> 50 ;
51 [label="LSTAT <= 14.32\nsquared_error = 0.496\nsamples = 3\nvalue = 21.233", fillcolor="#f6d2b8"] ;
50 -> 51 ;
52 [label="squared_error = 0.0\nsamples = 1\nvalue = 20.3", fillcolor="#f6d4bc"] ;
51 -> 52 ;
53 [label="DIS <= 2.125\nsquared_error = 0.09\nsamples = 2\nvalue = 21.7", fillcolor="#f5d0b6"] ;
51 -> 53 ;
54 [label="squared_error = 0.0\nsamples = 1\nvalue = 21.4", fillcolor="#f6d1b7"] ;
53 -> 54 ;
55 [label="squared_error = 0.0\nsamples = 1\nvalue = 22.0", fillcolor="#f5cfb4"] ;
53 -> 55 ;
56 [label="squared_error = -0.0\nsamples = 1\nvalue = 26.4", fillcolor="#f3c3a1"] ;
50 -> 56 ;
57 [label="RM <= 6.083\nsquared_error = 5.489\nsamples = 95\nvalue = 20.358", fillcolor="#f6d4bb"] ;
45 -> 57 ;
58 [label="B <= 378.215\nsquared_error = 5.272\nsamples = 57\nvalue = 19.732", fillcolor="#f6d6be"] ;
57 -> 58 ;
59 [label="RM <= 5.702\nsquared_error = 5.611\nsamples = 14\nvalue = 18.064", fillcolor="#f7dac6"] ;
58 -> 59 ;
60 [label="TAX <= 305.5\nsquared_error = 3.854\nsamples = 5\nvalue = 19.72", fillcolor="#f6d6be"] ;
59 -> 60 ;
61 [label="squared_error = 0.0\nsamples = 1\nvalue = 16.1", fillcolor="#f9e0ce"] ;
60 -> 61 ;
62 [label="RM <= 5.183\nsquared_error = 0.722\nsamples = 4\nvalue = 20.625", fillcolor="#f6d3ba"] ;
60 -> 62 ;
63 [label="squared_error = 0.0\nsamples = 1\nvalue = 21.9", fillcolor="#f5d0b5"] ;
62 -> 63 ;
64 [label="DIS <= 1.771\nsquared_error = 0.24\nsamples = 3\nvalue = 20.2", fillcolor="#f6d4bc"] ;
62 -> 64 ;
65 [label="squared_error = 0.0\nsamples = 1\nvalue = 19.6", fillcolor="#f7d6bf"] ;
64 -> 65 ;
66 [label="RM <= 5.552\nsquared_error = 0.09\nsamples = 2\nvalue = 20.5", fillcolor="#f6d4bb"] ;
64 -> 66 ;
67 [label="squared_error = 0.0\nsamples = 1\nvalue = 20.2", fillcolor="#f6d4bc"] ;
66 -> 67 ;
68 [label="squared_error = 0.0\nsamples = 1\nvalue = 20.8", fillcolor="#f6d3b9"] ;
66 -> 68 ;
69 [label="LSTAT <= 9.995\nsquared_error = 4.218\nsamples = 9\nvalue = 17.144", fillcolor="#f8ddca"] ;
59 -> 69 ;
70 [label="squared_error = 0.0\nsamples = 1\nvalue = 21.7", fillcolor="#f5d0b6"] ;
69 -> 70 ;
71 [label="AGE <= 98.65\nsquared_error = 1.827\nsamples = 8\nvalue = 16.575", fillcolor="#f8dfcc"] ;
69 -> 71 ;
72 [label="AGE <= 95.95\nsquared_error = 0.935\nsamples = 6\nvalue = 17.183", fillcolor="#f8ddc9"] ;
71 -> 72 ;
73 [label="LSTAT <= 14.435\nsquared_error = 0.24\nsamples = 5\nvalue = 16.8", fillcolor="#f8decb"] ;
72 -> 73 ;
74 [label="LSTAT <= 13.55\nsquared_error = 0.01\nsamples = 2\nvalue = 17.3", fillcolor="#f8ddc9"] ;
73 -> 74 ;
75 [label="squared_error = 0.0\nsamples = 1\nvalue = 17.2", fillcolor="#f8ddc9"] ;
74 -> 75 ;
76 [label="squared_error = 0.0\nsamples = 1\nvalue = 17.4", fillcolor="#f8dcc8"] ;
74 -> 76 ;
77 [label="TAX <= 295.5\nsquared_error = 0.116\nsamples = 3\nvalue = 16.467", fillcolor="#f8dfcd"] ;
73 -> 77 ;
78 [label="squared_error = 0.0\nsamples = 1\nvalue = 16.0", fillcolor="#f9e0cf"] ;
77 -> 78 ;
79 [label="DIS <= 3.293\nsquared_error = 0.01\nsamples = 2\nvalue = 16.7", fillcolor="#f8decc"] ;
77 -> 79 ;
80 [label="squared_error = 0.0\nsamples = 1\nvalue = 16.8", fillcolor="#f8decb"] ;
79 -> 80 ;
81 [label="squared_error = -0.0\nsamples = 1\nvalue = 16.6", fillcolor="#f8dfcc"] ;
79 -> 81 ;
82 [label="squared_error = -0.0\nsamples = 1\nvalue = 19.1", fillcolor="#f7d8c1"] ;
72 -> 82 ;
83 [label="DIS <= 2.794\nsquared_error = 0.063\nsamples = 2\nvalue = 14.75", fillcolor="#f9e4d4"] ;
71 -> 83 ;
84 [label="squared_error = 0.0\nsamples = 1\nvalue = 15.0", fillcolor="#f9e3d3"] ;
83 -> 84 ;
85 [label="squared_error = 0.0\nsamples = 1\nvalue = 14.5", fillcolor="#fae4d5"] ;
83 -> 85 ;
86 [label="PTRATIO <= 17.6\nsquared_error = 3.961\nsamples = 43\nvalue = 20.274", fillcolor="#f6d4bc"] ;
58 -> 86 ;
87 [label="DIS <= 4.443\nsquared_error = 3.098\nsamples = 10\nvalue = 21.86", fillcolor="#f5d0b5"] ;
86 -> 87 ;
88 [label="DIS <= 3.613\nsquared_error = 0.291\nsamples = 6\nvalue = 23.217", fillcolor="#f4ccaf"] ;
87 -> 88 ;
89 [label="CRIM <= 0.077\nsquared_error = 0.068\nsamples = 5\nvalue = 23.0", fillcolor="#f5cdb0"] ;
88 -> 89 ;
90 [label="CRIM <= 0.058\nsquared_error = 0.003\nsamples = 2\nvalue = 23.25", fillcolor="#f4ccaf"] ;
89 -> 90 ;
91 [label="squared_error = 0.0\nsamples = 1\nvalue = 23.3", fillcolor="#f4ccae"] ;
90 -> 91 ;
92 [label="squared_error = 0.0\nsamples = 1\nvalue = 23.2", fillcolor="#f4ccaf"] ;
90 -> 92 ;
93 [label="AGE <= 78.6\nsquared_error = 0.042\nsamples = 3\nvalue = 22.833", fillcolor="#f5cdb1"] ;
89 -> 93 ;
94 [label="TAX <= 280.0\nsquared_error = 0.01\nsamples = 2\nvalue = 22.7", fillcolor="#f5cdb1"] ;
93 -> 94 ;
95 [label="squared_error = 0.0\nsamples = 1\nvalue = 22.8", fillcolor="#f5cdb1"] ;
94 -> 95 ;
96 [label="squared_error = -0.0\nsamples = 1\nvalue = 22.6", fillcolor="#f5ceb2"] ;
94 -> 96 ;
97 [label="squared_error = 0.0\nsamples = 1\nvalue = 23.1", fillcolor="#f5ccaf"] ;
93 -> 97 ;
98 [label="squared_error = -0.0\nsamples = 1\nvalue = 24.3", fillcolor="#f4c9aa"] ;
88 -> 98 ;
99 [label="DIS <= 8.017\nsquared_error = 0.407\nsamples = 4\nvalue = 19.825", fillcolor="#f6d5be"] ;
87 -> 99 ;
100 [label="RM <= 5.915\nsquared_error = 0.029\nsamples = 3\nvalue = 19.467", fillcolor="#f7d6bf"] ;
99 -> 100 ;
101 [label="TAX <= 383.5\nsquared_error = 0.002\nsamples = 2\nvalue = 19.35", fillcolor="#f7d7c0"] ;
100 -> 101 ;
102 [label="squared_error = 0.0\nsamples = 1\nvalue = 19.4", fillcolor="#f7d7c0"] ;
101 -> 102 ;
103 [label="squared_error = -0.0\nsamples = 1\nvalue = 19.3", fillcolor="#f7d7c0"] ;
101 -> 103 ;
104 [label="squared_error = -0.0\nsamples = 1\nvalue = 19.7", fillcolor="#f7d6be"] ;
100 -> 104 ;
105 [label="squared_error = 0.0\nsamples = 1\nvalue = 20.9", fillcolor="#f6d2b9"] ;
99 -> 105 ;
106 [label="AGE <= 64.0\nsquared_error = 3.23\nsamples = 33\nvalue = 19.794", fillcolor="#f6d6be"] ;
86 -> 106 ;
107 [label="INDUS <= 8.915\nsquared_error = 3.118\nsamples = 21\nvalue = 20.357", fillcolor="#f6d4bb"] ;
106 -> 107 ;
108 [label="LSTAT <= 9.04\nsquared_error = 1.499\nsamples = 16\nvalue = 19.756", fillcolor="#f6d6be"] ;
107 -> 108 ;
109 [label="PTRATIO <= 21.5\nsquared_error = 1.086\nsamples = 8\nvalue = 20.512", fillcolor="#f6d4bb"] ;
108 -> 109 ;
110 [label="AGE <= 27.2\nsquared_error = 0.368\nsamples = 7\nvalue = 20.843", fillcolor="#f6d3b9"] ;
109 -> 110 ;
111 [label="squared_error = 0.0\nsamples = 1\nvalue = 22.0", fillcolor="#f5cfb4"] ;
110 -> 111 ;
112 [label="INDUS <= 7.105\nsquared_error = 0.169\nsamples = 6\nvalue = 20.65", fillcolor="#f6d3ba"] ;
110 -> 112 ;
113 [label="CRIM <= 0.036\nsquared_error = 0.035\nsamples = 4\nvalue = 20.9", fillcolor="#f6d2b9"] ;
112 -> 113 ;
114 [label="squared_error = 0.0\nsamples = 1\nvalue = 20.6", fillcolor="#f6d3ba"] ;
113 -> 114 ;
115 [label="PTRATIO <= 19.05\nsquared_error = 0.007\nsamples = 3\nvalue = 21.0", fillcolor="#f6d2b9"] ;
113 -> 115 ;
116 [label="squared_error = 0.0\nsamples = 1\nvalue = 20.9", fillcolor="#f6d2b9"] ;
115 -> 116 ;
117 [label="CRIM <= 0.06\nsquared_error = 0.002\nsamples = 2\nvalue = 21.05", fillcolor="#f6d2b8"] ;
115 -> 117 ;
118 [label="squared_error = 0.0\nsamples = 1\nvalue = 21.1", fillcolor="#f6d2b8"] ;
117 -> 118 ;
119 [label="squared_error = 0.0\nsamples = 1\nvalue = 21.0", fillcolor="#f6d2b9"] ;
117 -> 119 ;
120 [label="DIS <= 4.603\nsquared_error = 0.062\nsamples = 2\nvalue = 20.15", fillcolor="#f6d5bc"] ;
112 -> 120 ;
121 [label="squared_error = 0.0\nsamples = 1\nvalue = 19.9", fillcolor="#f6d5bd"] ;
120 -> 121 ;
122 [label="squared_error = 0.0\nsamples = 1\nvalue = 20.4", fillcolor="#f6d4bb"] ;
120 -> 122 ;
123 [label="squared_error = 0.0\nsamples = 1\nvalue = 18.2", fillcolor="#f7dac5"] ;
109 -> 123 ;
124 [label="TAX <= 223.5\nsquared_error = 0.767\nsamples = 8\nvalue = 19.0", fillcolor="#f7d8c1"] ;
108 -> 124 ;
125 [label="squared_error = 0.0\nsamples = 1\nvalue = 20.7", fillcolor="#f6d3ba"] ;
124 -> 125 ;
126 [label="NOX <= 0.41\nsquared_error = 0.405\nsamples = 7\nvalue = 18.757", fillcolor="#f7d8c2"] ;
124 -> 126 ;
127 [label="squared_error = 0.0\nsamples = 1\nvalue = 17.4", fillcolor="#f8dcc8"] ;
126 -> 127 ;
128 [label="RM <= 5.878\nsquared_error = 0.115\nsamples = 6\nvalue = 18.983", fillcolor="#f7d8c1"] ;
126 -> 128 ;
129 [label="AGE <= 40.05\nsquared_error = 0.01\nsamples = 2\nvalue = 19.4", fillcolor="#f7d7c0"] ;
128 -> 129 ;
130 [label="squared_error = 0.0\nsamples = 1\nvalue = 19.3", fillcolor="#f7d7c0"] ;
129 -> 130 ;
131 [label="squared_error = 0.0\nsamples = 1\nvalue = 19.5", fillcolor="#f7d6bf"] ;
129 -> 131 ;
132 [label="AGE <= 53.05\nsquared_error = 0.037\nsamples = 4\nvalue = 18.775", fillcolor="#f7d8c2"] ;
128 -> 132 ;
133 [label="LSTAT <= 12.27\nsquared_error = 0.002\nsamples = 2\nvalue = 18.95", fillcolor="#f7d8c2"] ;
132 -> 133 ;
134 [label="squared_error = 0.0\nsamples = 1\nvalue = 19.0", fillcolor="#f7d8c1"] ;
133 -> 134 ;
135 [label="squared_error = 0.0\nsamples = 1\nvalue = 18.9", fillcolor="#f7d8c2"] ;
133 -> 135 ;
136 [label="RM <= 5.931\nsquared_error = 0.01\nsamples = 2\nvalue = 18.6", fillcolor="#f7d9c3"] ;
132 -> 136 ;
137 [label="squared_error = 0.0\nsamples = 1\nvalue = 18.5", fillcolor="#f7d9c4"] ;
136 -> 137 ;
138 [label="squared_error = -0.0\nsamples = 1\nvalue = 18.7", fillcolor="#f7d9c3"] ;
136 -> 138 ;
139 [label="RAD <= 15.0\nsquared_error = 3.446\nsamples = 5\nvalue = 22.28", fillcolor="#f5cfb3"] ;
107 -> 139 ;
140 [label="CRIM <= 0.208\nsquared_error = 0.002\nsamples = 2\nvalue = 24.45", fillcolor="#f4c9a9"] ;
139 -> 140 ;
141 [label="squared_error = 0.0\nsamples = 1\nvalue = 24.4", fillcolor="#f4c9aa"] ;
140 -> 141 ;
142 [label="squared_error = 0.0\nsamples = 1\nvalue = 24.5", fillcolor="#f4c8a9"] ;
140 -> 142 ;
143 [label="DIS <= 3.625\nsquared_error = 0.509\nsamples = 3\nvalue = 20.833", fillcolor="#f6d3b9"] ;
139 -> 143 ;
144 [label="B <= 392.56\nsquared_error = 0.062\nsamples = 2\nvalue = 20.35", fillcolor="#f6d4bb"] ;
143 -> 144 ;
145 [label="squared_error = 0.0\nsamples = 1\nvalue = 20.6", fillcolor="#f6d3ba"] ;
144 -> 145 ;
146 [label="squared_error = 0.0\nsamples = 1\nvalue = 20.1", fillcolor="#f6d5bd"] ;
144 -> 146 ;
147 [label="squared_error = -0.0\nsamples = 1\nvalue = 21.8", fillcolor="#f5d0b5"] ;
143 -> 147 ;
148 [label="AGE <= 82.15\nsquared_error = 1.901\nsamples = 12\nvalue = 18.808", fillcolor="#f7d8c2"] ;
106 -> 148 ;
149 [label="AGE <= 77.2\nsquared_error = 1.571\nsamples = 7\nvalue = 18.029", fillcolor="#f7dbc6"] ;
148 -> 149 ;
150 [label="PTRATIO <= 19.0\nsquared_error = 0.662\nsamples = 4\nvalue = 18.925", fillcolor="#f7d8c2"] ;
149 -> 150 ;
151 [label="squared_error = 0.0\nsamples = 1\nvalue = 20.3", fillcolor="#f6d4bc"] ;
150 -> 151 ;
152 [label="CRIM <= 0.505\nsquared_error = 0.042\nsamples = 3\nvalue = 18.467", fillcolor="#f7d9c4"] ;
150 -> 152 ;
153 [label="INDUS <= 6.255\nsquared_error = 0.01\nsamples = 2\nvalue = 18.6", fillcolor="#f7d9c3"] ;
152 -> 153 ;
154 [label="squared_error = 0.0\nsamples = 1\nvalue = 18.7", fillcolor="#f7d9c3"] ;
153 -> 154 ;
155 [label="squared_error = -0.0\nsamples = 1\nvalue = 18.5", fillcolor="#f7d9c4"] ;
153 -> 155 ;
156 [label="squared_error = -0.0\nsamples = 1\nvalue = 18.2", fillcolor="#f7dac5"] ;
152 -> 156 ;
157 [label="NOX <= 0.541\nsquared_error = 0.282\nsamples = 3\nvalue = 16.833", fillcolor="#f8decb"] ;
149 -> 157 ;
158 [label="squared_error = 0.0\nsamples = 1\nvalue = 17.5", fillcolor="#f8dcc8"] ;
157 -> 158 ;
159 [label="INDUS <= 9.795\nsquared_error = 0.09\nsamples = 2\nvalue = 16.5", fillcolor="#f8dfcc"] ;
157 -> 159 ;
160 [label="squared_error = 0.0\nsamples = 1\nvalue = 16.8", fillcolor="#f8decb"] ;
159 -> 160 ;
161 [label="squared_error = 0.0\nsamples = 1\nvalue = 16.2", fillcolor="#f9e0ce"] ;
159 -> 161 ;
162 [label="PTRATIO <= 19.25\nsquared_error = 0.32\nsamples = 5\nvalue = 19.9", fillcolor="#f6d5bd"] ;
148 -> 162 ;
163 [label="DIS <= 2.791\nsquared_error = 0.01\nsamples = 2\nvalue = 19.3", fillcolor="#f7d7c0"] ;
162 -> 163 ;
164 [label="squared_error = 0.0\nsamples = 1\nvalue = 19.2", fillcolor="#f7d7c1"] ;
163 -> 164 ;
165 [label="squared_error = 0.0\nsamples = 1\nvalue = 19.4", fillcolor="#f7d7c0"] ;
163 -> 165 ;
166 [label="LSTAT <= 11.77\nsquared_error = 0.127\nsamples = 3\nvalue = 20.3", fillcolor="#f6d4bc"] ;
162 -> 166 ;
167 [label="squared_error = 0.0\nsamples = 1\nvalue = 20.8", fillcolor="#f6d3b9"] ;
166 -> 167 ;
168 [label="INDUS <= 22.92\nsquared_error = 0.002\nsamples = 2\nvalue = 20.05", fillcolor="#f6d5bd"] ;
166 -> 168 ;
169 [label="squared_error = 0.0\nsamples = 1\nvalue = 20.0", fillcolor="#f6d5bd"] ;
168 -> 169 ;
170 [label="squared_error = 0.0\nsamples = 1\nvalue = 20.1", fillcolor="#f6d5bd"] ;
168 -> 170 ;
171 [label="LSTAT <= 11.755\nsquared_error = 4.344\nsamples = 38\nvalue = 21.297", fillcolor="#f6d1b7"] ;
57 -> 171 ;
172 [label="RM <= 6.497\nsquared_error = 3.54\nsamples = 24\nvalue = 22.029", fillcolor="#f5cfb4"] ;
171 -> 172 ;
173 [label="PTRATIO <= 17.6\nsquared_error = 2.306\nsamples = 23\nvalue = 22.27", fillcolor="#f5cfb3"] ;
172 -> 173 ;
174 [label="RM <= 6.338\nsquared_error = 1.127\nsamples = 7\nvalue = 23.314", fillcolor="#f4ccae"] ;
173 -> 174 ;
175 [label="B <= 268.625\nsquared_error = 0.232\nsamples = 4\nvalue = 24.175", fillcolor="#f4c9ab"] ;
174 -> 175 ;
176 [label="squared_error = 0.0\nsamples = 1\nvalue = 25.0", fillcolor="#f3c7a7"] ;
175 -> 176 ;
177 [label="PTRATIO <= 15.35\nsquared_error = 0.007\nsamples = 3\nvalue = 23.9", fillcolor="#f4caac"] ;
175 -> 177 ;
178 [label="squared_error = 0.0\nsamples = 1\nvalue = 23.8", fillcolor="#f4caac"] ;
177 -> 178 ;
179 [label="RAD <= 6.0\nsquared_error = 0.002\nsamples = 2\nvalue = 23.95", fillcolor="#f4caac"] ;
177 -> 179 ;
180 [label="squared_error = 0.0\nsamples = 1\nvalue = 23.9", fillcolor="#f4caac"] ;
179 -> 180 ;
181 [label="squared_error = 0.0\nsamples = 1\nvalue = 24.0", fillcolor="#f4caab"] ;
179 -> 181 ;
182 [label="CRIM <= 0.057\nsquared_error = 0.016\nsamples = 3\nvalue = 22.167", fillcolor="#f5cfb3"] ;
174 -> 182 ;
183 [label="squared_error = 0.0\nsamples = 1\nvalue = 22.0", fillcolor="#f5cfb4"] ;
182 -> 183 ;
184 [label="INDUS <= 12.255\nsquared_error = 0.002\nsamples = 2\nvalue = 22.25", fillcolor="#f5cfb3"] ;
182 -> 184 ;
185 [label="squared_error = 0.0\nsamples = 1\nvalue = 22.2", fillcolor="#f5cfb3"] ;
184 -> 185 ;
186 [label="squared_error = 0.0\nsamples = 1\nvalue = 22.3", fillcolor="#f5cfb3"] ;
184 -> 186 ;
187 [label="RM <= 6.342\nsquared_error = 2.136\nsamples = 16\nvalue = 21.813", fillcolor="#f5d0b5"] ;
173 -> 187 ;
188 [label="CRIM <= 4.438\nsquared_error = 1.423\nsamples = 10\nvalue = 21.09", fillcolor="#f6d2b8"] ;
187 -> 188 ;
189 [label="PTRATIO <= 17.9\nsquared_error = 0.805\nsamples = 8\nvalue = 20.65", fillcolor="#f6d3ba"] ;
188 -> 189 ;
190 [label="squared_error = 0.0\nsamples = 1\nvalue = 18.5", fillcolor="#f7d9c4"] ;
189 -> 190 ;
191 [label="RM <= 6.257\nsquared_error = 0.165\nsamples = 7\nvalue = 20.957", fillcolor="#f6d2b9"] ;
189 -> 191 ;
192 [label="LSTAT <= 10.965\nsquared_error = 0.106\nsamples = 5\nvalue = 20.78", fillcolor="#f6d3ba"] ;
191 -> 192 ;
193 [label="AGE <= 61.25\nsquared_error = 0.012\nsamples = 4\nvalue = 20.625", fillcolor="#f6d3ba"] ;
192 -> 193 ;
194 [label="squared_error = 0.0\nsamples = 1\nvalue = 20.8", fillcolor="#f6d3b9"] ;
193 -> 194 ;
195 [label="INDUS <= 8.895\nsquared_error = 0.002\nsamples = 3\nvalue = 20.567", fillcolor="#f6d3bb"] ;
193 -> 195 ;
196 [label="squared_error = 0.0\nsamples = 1\nvalue = 20.5", fillcolor="#f6d4bb"] ;
195 -> 196 ;
197 [label="squared_error = -0.0\nsamples = 2\nvalue = 20.6", fillcolor="#f6d3ba"] ;
195 -> 197 ;
198 [label="squared_error = -0.0\nsamples = 1\nvalue = 21.4", fillcolor="#f6d1b7"] ;
192 -> 198 ;
199 [label="AGE <= 67.35\nsquared_error = 0.04\nsamples = 2\nvalue = 21.4", fillcolor="#f6d1b7"] ;
191 -> 199 ;
200 [label="squared_error = 0.0\nsamples = 1\nvalue = 21.2", fillcolor="#f6d2b8"] ;
199 -> 200 ;
201 [label="squared_error = 0.0\nsamples = 1\nvalue = 21.6", fillcolor="#f5d1b6"] ;
199 -> 201 ;
202 [label="AGE <= 74.05\nsquared_error = 0.023\nsamples = 2\nvalue = 22.85", fillcolor="#f5cdb0"] ;
188 -> 202 ;
203 [label="squared_error = 0.0\nsamples = 1\nvalue = 23.0", fillcolor="#f5cdb0"] ;
202 -> 203 ;
204 [label="squared_error = -0.0\nsamples = 1\nvalue = 22.7", fillcolor="#f5cdb1"] ;
202 -> 204 ;
205 [label="CRIM <= 0.045\nsquared_error = 1.005\nsamples = 6\nvalue = 23.017", fillcolor="#f5cdb0"] ;
187 -> 205 ;
206 [label="DIS <= 4.03\nsquared_error = 0.04\nsamples = 2\nvalue = 21.8", fillcolor="#f5d0b5"] ;
205 -> 206 ;
207 [label="squared_error = 0.0\nsamples = 1\nvalue = 22.0", fillcolor="#f5cfb4"] ;
206 -> 207 ;
208 [label="squared_error = 0.0\nsamples = 1\nvalue = 21.6", fillcolor="#f5d1b6"] ;
206 -> 208 ;
209 [label="RM <= 6.385\nsquared_error = 0.377\nsamples = 4\nvalue = 23.625", fillcolor="#f4cbad"] ;
205 -> 209 ;
210 [label="PTRATIO <= 19.8\nsquared_error = 0.003\nsamples = 2\nvalue = 23.05", fillcolor="#f5ccb0"] ;
209 -> 210 ;
211 [label="squared_error = 0.0\nsamples = 1\nvalue = 23.1", fillcolor="#f5ccaf"] ;
210 -> 211 ;
212 [label="squared_error = 0.0\nsamples = 1\nvalue = 23.0", fillcolor="#f5cdb0"] ;
210 -> 212 ;
213 [label="INDUS <= 5.175\nsquared_error = 0.09\nsamples = 2\nvalue = 24.2", fillcolor="#f4c9ab"] ;
209 -> 213 ;
214 [label="squared_error = 0.0\nsamples = 1\nvalue = 23.9", fillcolor="#f4caac"] ;
213 -> 214 ;
215 [label="squared_error = 0.0\nsamples = 1\nvalue = 24.5", fillcolor="#f4c8a9"] ;
213 -> 215 ;
216 [label="squared_error = 0.0\nsamples = 1\nvalue = 16.5", fillcolor="#f8dfcc"] ;
172 -> 216 ;
217 [label="LSTAT <= 12.145\nsquared_error = 3.231\nsamples = 14\nvalue = 20.043", fillcolor="#f6d5bd"] ;
171 -> 217 ;
218 [label="squared_error = 0.0\nsamples = 1\nvalue = 16.1", fillcolor="#f9e0ce"] ;
217 -> 218 ;
219 [label="AGE <= 77.4\nsquared_error = 2.192\nsamples = 13\nvalue = 20.346", fillcolor="#f6d4bb"] ;
217 -> 219 ;
220 [label="RM <= 6.334\nsquared_error = 0.616\nsamples = 5\nvalue = 21.7", fillcolor="#f5d0b6"] ;
219 -> 220 ;
221 [label="LSTAT <= 12.865\nsquared_error = 0.067\nsamples = 4\nvalue = 21.325", fillcolor="#f6d1b7"] ;
220 -> 221 ;
222 [label="LSTAT <= 12.535\nsquared_error = 0.01\nsamples = 2\nvalue = 21.1", fillcolor="#f6d2b8"] ;
221 -> 222 ;
223 [label="squared_error = 0.0\nsamples = 1\nvalue = 21.2", fillcolor="#f6d2b8"] ;
222 -> 223 ;
224 [label="squared_error = -0.0\nsamples = 1\nvalue = 21.0", fillcolor="#f6d2b9"] ;
222 -> 224 ;
225 [label="NOX <= 0.587\nsquared_error = 0.023\nsamples = 2\nvalue = 21.55", fillcolor="#f5d1b6"] ;
221 -> 225 ;
226 [label="squared_error = 0.0\nsamples = 1\nvalue = 21.7", fillcolor="#f5d0b6"] ;
225 -> 226 ;
227 [label="squared_error = 0.0\nsamples = 1\nvalue = 21.4", fillcolor="#f6d1b7"] ;
225 -> 227 ;
228 [label="squared_error = -0.0\nsamples = 1\nvalue = 23.2", fillcolor="#f4ccaf"] ;
220 -> 228 ;
229 [label="DIS <= 2.536\nsquared_error = 1.315\nsamples = 8\nvalue = 19.5", fillcolor="#f7d6bf"] ;
219 -> 229 ;
230 [label="DIS <= 2.4\nsquared_error = 0.746\nsamples = 5\nvalue = 20.16", fillcolor="#f6d5bc"] ;
229 -> 230 ;
231 [label="RM <= 6.289\nsquared_error = 0.192\nsamples = 4\nvalue = 19.775", fillcolor="#f6d6be"] ;
230 -> 231 ;
232 [label="NOX <= 0.645\nsquared_error = 0.063\nsamples = 2\nvalue = 20.15", fillcolor="#f6d5bc"] ;
231 -> 232 ;
233 [label="squared_error = 0.0\nsamples = 1\nvalue = 20.4", fillcolor="#f6d4bb"] ;
232 -> 233 ;
234 [label="squared_error = 0.0\nsamples = 1\nvalue = 19.9", fillcolor="#f6d5bd"] ;
232 -> 234 ;
235 [label="AGE <= 98.3\nsquared_error = 0.04\nsamples = 2\nvalue = 19.4", fillcolor="#f7d7c0"] ;
231 -> 235 ;
236 [label="squared_error = 0.0\nsamples = 1\nvalue = 19.6", fillcolor="#f7d6bf"] ;
235 -> 236 ;
237 [label="squared_error = 0.0\nsamples = 1\nvalue = 19.2", fillcolor="#f7d7c1"] ;
235 -> 237 ;
238 [label="squared_error = -0.0\nsamples = 1\nvalue = 21.7", fillcolor="#f5d0b6"] ;
230 -> 238 ;
239 [label="DIS <= 3.057\nsquared_error = 0.327\nsamples = 3\nvalue = 18.4", fillcolor="#f7d9c4"] ;
229 -> 239 ;
240 [label="squared_error = 0.0\nsamples = 1\nvalue = 17.7", fillcolor="#f8dbc7"] ;
239 -> 240 ;
241 [label="CRIM <= 3.232\nsquared_error = 0.123\nsamples = 2\nvalue = 18.75", fillcolor="#f7d8c2"] ;
239 -> 241 ;
242 [label="squared_error = 0.0\nsamples = 1\nvalue = 18.4", fillcolor="#f7d9c4"] ;
241 -> 242 ;
243 [label="squared_error = 0.0\nsamples = 1\nvalue = 19.1", fillcolor="#f7d8c1"] ;
241 -> 243 ;
244 [label="PTRATIO <= 15.4\nsquared_error = 11.503\nsamples = 34\nvalue = 27.465", fillcolor="#f2c09c"] ;
2 -> 244 ;
245 [label="RM <= 6.897\nsquared_error = 6.712\nsamples = 5\nvalue = 32.1", fillcolor="#efb388"] ;
244 -> 245 ;
246 [label="B <= 392.415\nsquared_error = 0.887\nsamples = 4\nvalue = 30.875", fillcolor="#f0b78d"] ;
245 -> 246 ;
247 [label="LSTAT <= 5.73\nsquared_error = 0.022\nsamples = 2\nvalue = 29.95", fillcolor="#f1b991"] ;
246 -> 247 ;
248 [label="squared_error = 0.0\nsamples = 1\nvalue = 29.8", fillcolor="#f1ba92"] ;
247 -> 248 ;
249 [label="squared_error = -0.0\nsamples = 1\nvalue = 30.1", fillcolor="#f0b991"] ;
247 -> 249 ;
250 [label="DIS <= 6.057\nsquared_error = 0.04\nsamples = 2\nvalue = 31.8", fillcolor="#f0b489"] ;
246 -> 250 ;
251 [label="squared_error = 0.0\nsamples = 1\nvalue = 32.0", fillcolor="#efb388"] ;
250 -> 251 ;
252 [label="squared_error = 0.0\nsamples = 1\nvalue = 31.6", fillcolor="#f0b58a"] ;
250 -> 252 ;
253 [label="squared_error = 0.0\nsamples = 1\nvalue = 37.0", fillcolor="#eda572"] ;
245 -> 253 ;
254 [label="NOX <= 0.526\nsquared_error = 7.986\nsamples = 29\nvalue = 26.666", fillcolor="#f2c2a0"] ;
244 -> 254 ;
255 [label="LSTAT <= 4.67\nsquared_error = 4.772\nsamples = 22\nvalue = 27.659", fillcolor="#f2c09b"] ;
254 -> 255 ;
256 [label="NOX <= 0.42\nsquared_error = 1.532\nsamples = 5\nvalue = 30.1", fillcolor="#f0b991"] ;
255 -> 256 ;
257 [label="LSTAT <= 4.44\nsquared_error = 0.436\nsamples = 3\nvalue = 29.233", fillcolor="#f1bb94"] ;
256 -> 257 ;
258 [label="NOX <= 0.406\nsquared_error = 0.09\nsamples = 2\nvalue = 28.8", fillcolor="#f1bc96"] ;
257 -> 258 ;
259 [label="squared_error = 0.0\nsamples = 1\nvalue = 29.1", fillcolor="#f1bc95"] ;
258 -> 259 ;
260 [label="squared_error = -0.0\nsamples = 1\nvalue = 28.5", fillcolor="#f1bd98"] ;
258 -> 260 ;
261 [label="squared_error = 0.0\nsamples = 1\nvalue = 30.1", fillcolor="#f0b991"] ;
257 -> 261 ;
262 [label="RM <= 6.724\nsquared_error = 0.36\nsamples = 2\nvalue = 31.4", fillcolor="#f0b58b"] ;
256 -> 262 ;
263 [label="squared_error = 0.0\nsamples = 1\nvalue = 30.8", fillcolor="#f0b78d"] ;
262 -> 263 ;
264 [label="squared_error = 0.0\nsamples = 1\nvalue = 32.0", fillcolor="#efb388"] ;
262 -> 264 ;
265 [label="ZN <= 44.0\nsquared_error = 3.457\nsamples = 17\nvalue = 26.941", fillcolor="#f2c29e"] ;
255 -> 265 ;
266 [label="DIS <= 4.045\nsquared_error = 2.181\nsamples = 14\nvalue = 27.536", fillcolor="#f2c09c"] ;
265 -> 266 ;
267 [label="RM <= 6.727\nsquared_error = 1.314\nsamples = 9\nvalue = 28.144", fillcolor="#f2be99"] ;
266 -> 267 ;
268 [label="DIS <= 3.384\nsquared_error = 0.382\nsamples = 4\nvalue = 29.225", fillcolor="#f1bb94"] ;
267 -> 268 ;
269 [label="PTRATIO <= 17.0\nsquared_error = 0.123\nsamples = 2\nvalue = 29.75", fillcolor="#f1ba92"] ;
268 -> 269 ;
270 [label="squared_error = 0.0\nsamples = 1\nvalue = 29.4", fillcolor="#f1bb94"] ;
269 -> 270 ;
271 [label="squared_error = 0.0\nsamples = 1\nvalue = 30.1", fillcolor="#f0b991"] ;
269 -> 271 ;
272 [label="DIS <= 3.574\nsquared_error = 0.09\nsamples = 2\nvalue = 28.7", fillcolor="#f1bd97"] ;
268 -> 272 ;
273 [label="squared_error = 0.0\nsamples = 1\nvalue = 28.4", fillcolor="#f1bd98"] ;
272 -> 273 ;
274 [label="squared_error = 0.0\nsamples = 1\nvalue = 29.0", fillcolor="#f1bc95"] ;
272 -> 274 ;
275 [label="DIS <= 3.022\nsquared_error = 0.378\nsamples = 5\nvalue = 27.28", fillcolor="#f2c19d"] ;
267 -> 275 ;
276 [label="DIS <= 2.817\nsquared_error = 0.187\nsamples = 3\nvalue = 26.9", fillcolor="#f2c29f"] ;
275 -> 276 ;
277 [label="squared_error = 0.0\nsamples = 1\nvalue = 27.5", fillcolor="#f2c09c"] ;
276 -> 277 ;
278 [label="INDUS <= 7.38\nsquared_error = 0.01\nsamples = 2\nvalue = 26.6", fillcolor="#f3c3a0"] ;
276 -> 278 ;
279 [label="squared_error = 0.0\nsamples = 1\nvalue = 26.7", fillcolor="#f2c2a0"] ;
278 -> 279 ;
280 [label="squared_error = -0.0\nsamples = 1\nvalue = 26.5", fillcolor="#f3c3a0"] ;
278 -> 280 ;
281 [label="AGE <= 74.0\nsquared_error = 0.122\nsamples = 2\nvalue = 27.85", fillcolor="#f2bf9a"] ;
275 -> 281 ;
282 [label="squared_error = 0.0\nsamples = 1\nvalue = 28.2", fillcolor="#f2be99"] ;
281 -> 282 ;
283 [label="squared_error = -0.0\nsamples = 1\nvalue = 27.5", fillcolor="#f2c09c"] ;
281 -> 283 ;
284 [label="AGE <= 63.25\nsquared_error = 1.874\nsamples = 5\nvalue = 26.44", fillcolor="#f3c3a1"] ;
266 -> 284 ;
285 [label="CRIM <= 0.047\nsquared_error = 0.327\nsamples = 4\nvalue = 27.075", fillcolor="#f2c19e"] ;
284 -> 285 ;
286 [label="squared_error = 0.0\nsamples = 1\nvalue = 28.0", fillcolor="#f2bf9a"] ;
285 -> 286 ;
287 [label="DIS <= 5.841\nsquared_error = 0.056\nsamples = 3\nvalue = 26.767", fillcolor="#f2c29f"] ;
285 -> 287 ;
288 [label="squared_error = -0.0\nsamples = 2\nvalue = 26.6", fillcolor="#f3c3a0"] ;
287 -> 288 ;
289 [label="squared_error = 0.0\nsamples = 1\nvalue = 27.1", fillcolor="#f2c19e"] ;
287 -> 289 ;
290 [label="squared_error = -0.0\nsamples = 1\nvalue = 23.9", fillcolor="#f4caac"] ;
284 -> 290 ;
291 [label="AGE <= 32.8\nsquared_error = 0.062\nsamples = 3\nvalue = 24.167", fillcolor="#f4c9ab"] ;
265 -> 291 ;
292 [label="squared_error = 0.0\nsamples = 1\nvalue = 24.5", fillcolor="#f4c8a9"] ;
291 -> 292 ;
293 [label="CRIM <= 0.052\nsquared_error = 0.01\nsamples = 2\nvalue = 24.0", fillcolor="#f4caab"] ;
291 -> 293 ;
294 [label="squared_error = 0.0\nsamples = 1\nvalue = 23.9", fillcolor="#f4caac"] ;
293 -> 294 ;
295 [label="squared_error = 0.0\nsamples = 1\nvalue = 24.1", fillcolor="#f4caab"] ;
293 -> 295 ;
296 [label="CRIM <= 0.085\nsquared_error = 5.234\nsamples = 7\nvalue = 23.543", fillcolor="#f4cbad"] ;
254 -> 296 ;
297 [label="squared_error = 0.0\nsamples = 1\nvalue = 28.7", fillcolor="#f1bd97"] ;
296 -> 297 ;
298 [label="PTRATIO <= 20.6\nsquared_error = 0.935\nsamples = 6\nvalue = 22.683", fillcolor="#f5cdb1"] ;
296 -> 298 ;
299 [label="DIS <= 3.325\nsquared_error = 0.227\nsamples = 4\nvalue = 23.275", fillcolor="#f4ccaf"] ;
298 -> 299 ;
300 [label="squared_error = 0.0\nsamples = 2\nvalue = 22.8", fillcolor="#f5cdb1"] ;
299 -> 300 ;
301 [label="CRIM <= 3.039\nsquared_error = 0.003\nsamples = 2\nvalue = 23.75", fillcolor="#f4caac"] ;
299 -> 301 ;
302 [label="squared_error = 0.0\nsamples = 1\nvalue = 23.8", fillcolor="#f4caac"] ;
301 -> 302 ;
303 [label="squared_error = -0.0\nsamples = 1\nvalue = 23.7", fillcolor="#f4cbad"] ;
301 -> 303 ;
304 [label="RM <= 6.734\nsquared_error = 0.25\nsamples = 2\nvalue = 21.5", fillcolor="#f5d1b6"] ;
298 -> 304 ;
305 [label="squared_error = 0.0\nsamples = 1\nvalue = 21.0", fillcolor="#f6d2b9"] ;
304 -> 305 ;
306 [label="squared_error = 0.0\nsamples = 1\nvalue = 22.0", fillcolor="#f5cfb4"] ;
304 -> 306 ;
307 [label="NOX <= 0.603\nsquared_error = 19.3\nsamples = 95\nvalue = 14.145", fillcolor="#fae5d7"] ;
1 -> 307 ;
308 [label="CRIM <= 0.593\nsquared_error = 11.704\nsamples = 33\nvalue = 17.8", fillcolor="#f8dbc7"] ;
307 -> 308 ;
309 [label="RM <= 6.274\nsquared_error = 6.776\nsamples = 16\nvalue = 20.188", fillcolor="#f6d4bc"] ;
308 -> 309 ;
310 [label="RM <= 6.168\nsquared_error = 5.314\nsamples = 15\nvalue = 20.533", fillcolor="#f6d4bb"] ;
309 -> 310 ;
311 [label="AGE <= 57.9\nsquared_error = 2.394\nsamples = 14\nvalue = 20.064", fillcolor="#f6d5bd"] ;
310 -> 311 ;
312 [label="DIS <= 3.226\nsquared_error = 0.327\nsamples = 3\nvalue = 22.4", fillcolor="#f5ceb2"] ;
311 -> 312 ;
313 [label="squared_error = 0.0\nsamples = 1\nvalue = 23.1", fillcolor="#f5ccaf"] ;
312 -> 313 ;
314 [label="ZN <= 6.25\nsquared_error = 0.123\nsamples = 2\nvalue = 22.05", fillcolor="#f5cfb4"] ;
312 -> 314 ;
315 [label="squared_error = 0.0\nsamples = 1\nvalue = 22.4", fillcolor="#f5ceb2"] ;
314 -> 315 ;
316 [label="squared_error = 0.0\nsamples = 1\nvalue = 21.7", fillcolor="#f5d0b6"] ;
314 -> 316 ;
317 [label="RM <= 6.128\nsquared_error = 1.064\nsamples = 11\nvalue = 19.427", fillcolor="#f7d7c0"] ;
311 -> 317 ;
318 [label="RAD <= 5.5\nsquared_error = 0.602\nsamples = 10\nvalue = 19.2", fillcolor="#f7d7c1"] ;
317 -> 318 ;
319 [label="B <= 378.735\nsquared_error = 0.251\nsamples = 7\nvalue = 19.571", fillcolor="#f7d6bf"] ;
318 -> 319 ;
320 [label="squared_error = 0.0\nsamples = 1\nvalue = 20.5", fillcolor="#f6d4bb"] ;
319 -> 320 ;
321 [label="RAD <= 2.5\nsquared_error = 0.125\nsamples = 6\nvalue = 19.417", fillcolor="#f7d7c0"] ;
319 -> 321 ;
322 [label="squared_error = 0.0\nsamples = 1\nvalue = 18.8", fillcolor="#f7d8c2"] ;
321 -> 322 ;
323 [label="CRIM <= 0.406\nsquared_error = 0.058\nsamples = 5\nvalue = 19.54", fillcolor="#f7d6bf"] ;
321 -> 323 ;
324 [label="CRIM <= 0.195\nsquared_error = 0.007\nsamples = 4\nvalue = 19.425", fillcolor="#f7d7c0"] ;
323 -> 324 ;
325 [label="squared_error = 0.0\nsamples = 2\nvalue = 19.5", fillcolor="#f7d6bf"] ;
324 -> 325 ;
326 [label="B <= 396.07\nsquared_error = 0.002\nsamples = 2\nvalue = 19.35", fillcolor="#f7d7c0"] ;
324 -> 326 ;
327 [label="squared_error = 0.0\nsamples = 1\nvalue = 19.3", fillcolor="#f7d7c0"] ;
326 -> 327 ;
328 [label="squared_error = -0.0\nsamples = 1\nvalue = 19.4", fillcolor="#f7d7c0"] ;
326 -> 328 ;
329 [label="squared_error = 0.0\nsamples = 1\nvalue = 20.0", fillcolor="#f6d5bd"] ;
323 -> 329 ;
330 [label="PTRATIO <= 18.5\nsquared_error = 0.349\nsamples = 3\nvalue = 18.333", fillcolor="#f7dac4"] ;
318 -> 330 ;
331 [label="LSTAT <= 16.65\nsquared_error = 0.002\nsamples = 2\nvalue = 18.75", fillcolor="#f7d8c2"] ;
330 -> 331 ;
332 [label="squared_error = 0.0\nsamples = 1\nvalue = 18.8", fillcolor="#f7d8c2"] ;
331 -> 332 ;
333 [label="squared_error = -0.0\nsamples = 1\nvalue = 18.7", fillcolor="#f7d9c3"] ;
331 -> 333 ;
334 [label="squared_error = 0.0\nsamples = 1\nvalue = 17.5", fillcolor="#f8dcc8"] ;
330 -> 334 ;
335 [label="squared_error = 0.0\nsamples = 1\nvalue = 21.7", fillcolor="#f5d0b6"] ;
317 -> 335 ;
336 [label="squared_error = -0.0\nsamples = 1\nvalue = 27.1", fillcolor="#f2c19e"] ;
310 -> 336 ;
337 [label="squared_error = 0.0\nsamples = 1\nvalue = 15.0", fillcolor="#f9e3d3"] ;
309 -> 337 ;
338 [label="NOX <= 0.559\nsquared_error = 5.928\nsamples = 17\nvalue = 15.553", fillcolor="#f9e1d1"] ;
308 -> 338 ;
339 [label="B <= 385.45\nsquared_error = 1.016\nsamples = 8\nvalue = 14.087", fillcolor="#fae6d7"] ;
338 -> 339 ;
340 [label="CRIM <= 1.043\nsquared_error = 0.518\nsamples = 5\nvalue = 13.48", fillcolor="#fae7da"] ;
339 -> 340 ;
341 [label="squared_error = 0.0\nsamples = 1\nvalue = 14.8", fillcolor="#f9e4d4"] ;
340 -> 341 ;
342 [label="CRIM <= 1.141\nsquared_error = 0.102\nsamples = 4\nvalue = 13.15", fillcolor="#fae8db"] ;
340 -> 342 ;
343 [label="squared_error = 0.0\nsamples = 1\nvalue = 12.7", fillcolor="#fbe9dd"] ;
342 -> 343 ;
344 [label="AGE <= 96.55\nsquared_error = 0.047\nsamples = 3\nvalue = 13.3", fillcolor="#fae8da"] ;
342 -> 344 ;
345 [label="B <= 295.685\nsquared_error = 0.003\nsamples = 2\nvalue = 13.15", fillcolor="#fae8db"] ;
344 -> 345 ;
346 [label="squared_error = 0.0\nsamples = 1\nvalue = 13.2", fillcolor="#fae8db"] ;
345 -> 346 ;
347 [label="squared_error = 0.0\nsamples = 1\nvalue = 13.1", fillcolor="#fae8db"] ;
345 -> 347 ;
348 [label="squared_error = -0.0\nsamples = 1\nvalue = 13.6", fillcolor="#fae7d9"] ;
344 -> 348 ;
349 [label="RM <= 5.868\nsquared_error = 0.207\nsamples = 3\nvalue = 15.1", fillcolor="#f9e3d3"] ;
339 -> 349 ;
350 [label="squared_error = 0.0\nsamples = 1\nvalue = 14.5", fillcolor="#fae4d5"] ;
349 -> 350 ;
351 [label="DIS <= 4.188\nsquared_error = 0.04\nsamples = 2\nvalue = 15.4", fillcolor="#f9e2d1"] ;
349 -> 351 ;
352 [label="squared_error = 0.0\nsamples = 1\nvalue = 15.2", fillcolor="#f9e2d2"] ;
351 -> 352 ;
353 [label="squared_error = 0.0\nsamples = 1\nvalue = 15.6", fillcolor="#f9e1d0"] ;
351 -> 353 ;
354 [label="B <= 16.22\nsquared_error = 6.689\nsamples = 9\nvalue = 16.856", fillcolor="#f8decb"] ;
338 -> 354 ;
355 [label="squared_error = 0.0\nsamples = 1\nvalue = 11.7", fillcolor="#fbece2"] ;
354 -> 355 ;
356 [label="AGE <= 95.95\nsquared_error = 3.787\nsamples = 8\nvalue = 17.5", fillcolor="#f8dcc8"] ;
354 -> 356 ;
357 [label="CRIM <= 4.386\nsquared_error = 0.142\nsamples = 3\nvalue = 19.367", fillcolor="#f7d7c0"] ;
356 -> 357 ;
358 [label="squared_error = 0.0\nsamples = 1\nvalue = 19.9", fillcolor="#f6d5bd"] ;
357 -> 358 ;
359 [label="squared_error = -0.0\nsamples = 2\nvalue = 19.1", fillcolor="#f7d8c1"] ;
357 -> 359 ;
360 [label="CRIM <= 6.899\nsquared_error = 2.63\nsamples = 5\nvalue = 16.38", fillcolor="#f8dfcd"] ;
356 -> 360 ;
361 [label="squared_error = 0.0\nsamples = 1\nvalue = 13.3", fillcolor="#fae8da"] ;
360 -> 361 ;
362 [label="LSTAT <= 20.65\nsquared_error = 0.322\nsamples = 4\nvalue = 17.15", fillcolor="#f8ddca"] ;
360 -> 362 ;
363 [label="squared_error = 0.0\nsamples = 1\nvalue = 16.3", fillcolor="#f8dfcd"] ;
362 -> 363 ;
364 [label="B <= 31.92\nsquared_error = 0.109\nsamples = 3\nvalue = 17.433", fillcolor="#f8dcc8"] ;
362 -> 364 ;
365 [label="squared_error = 0.0\nsamples = 1\nvalue = 17.9", fillcolor="#f8dbc6"] ;
364 -> 365 ;
366 [label="AGE <= 98.95\nsquared_error = 0.0\nsamples = 2\nvalue = 17.2", fillcolor="#f8ddc9"] ;
364 -> 366 ;
367 [label="squared_error = 0.0\nsamples = 1\nvalue = 17.2", fillcolor="#f8ddc9"] ;
366 -> 367 ;
368 [label="squared_error = 0.0\nsamples = 1\nvalue = 17.2", fillcolor="#f8ddc9"] ;
366 -> 368 ;
369 [label="LSTAT <= 19.34\nsquared_error = 12.45\nsamples = 62\nvalue = 12.2", fillcolor="#fbebdf"] ;
307 -> 369 ;
370 [label="CRIM <= 12.5\nsquared_error = 5.681\nsamples = 26\nvalue = 14.931", fillcolor="#f9e3d3"] ;
369 -> 370 ;
371 [label="TAX <= 551.5\nsquared_error = 3.517\nsamples = 23\nvalue = 15.5", fillcolor="#f9e2d1"] ;
370 -> 371 ;
372 [label="RM <= 5.701\nsquared_error = 2.297\nsamples = 7\nvalue = 17.257", fillcolor="#f8ddc9"] ;
371 -> 372 ;
373 [label="AGE <= 95.35\nsquared_error = 0.903\nsamples = 2\nvalue = 15.25", fillcolor="#f9e2d2"] ;
372 -> 373 ;
374 [label="squared_error = 0.0\nsamples = 1\nvalue = 14.3", fillcolor="#fae5d6"] ;
373 -> 374 ;
375 [label="squared_error = 0.0\nsamples = 1\nvalue = 16.2", fillcolor="#f9e0ce"] ;
373 -> 375 ;
376 [label="CRIM <= 1.782\nsquared_error = 0.598\nsamples = 5\nvalue = 18.06", fillcolor="#f7dac6"] ;
372 -> 376 ;
377 [label="CHAS <= 0.5\nsquared_error = 0.187\nsamples = 4\nvalue = 17.725", fillcolor="#f8dbc7"] ;
376 -> 377 ;
378 [label="LSTAT <= 17.71\nsquared_error = 0.016\nsamples = 3\nvalue = 17.967", fillcolor="#f8dbc6"] ;
377 -> 378 ;
379 [label="RM <= 6.383\nsquared_error = 0.003\nsamples = 2\nvalue = 18.05", fillcolor="#f7dac6"] ;
378 -> 379 ;
380 [label="squared_error = 0.0\nsamples = 1\nvalue = 18.1", fillcolor="#f7dac5"] ;
379 -> 380 ;
381 [label="squared_error = -0.0\nsamples = 1\nvalue = 18.0", fillcolor="#f7dbc6"] ;
379 -> 381 ;
382 [label="squared_error = -0.0\nsamples = 1\nvalue = 17.8", fillcolor="#f8dbc7"] ;
378 -> 382 ;
383 [label="squared_error = 0.0\nsamples = 1\nvalue = 17.0", fillcolor="#f8ddca"] ;
377 -> 383 ;
384 [label="squared_error = -0.0\nsamples = 1\nvalue = 19.4", fillcolor="#f7d7c0"] ;
376 -> 384 ;
385 [label="CHAS <= 0.5\nsquared_error = 2.108\nsamples = 16\nvalue = 14.731", fillcolor="#f9e4d4"] ;
371 -> 385 ;
386 [label="AGE <= 99.4\nsquared_error = 1.579\nsamples = 15\nvalue = 14.527", fillcolor="#f9e4d5"] ;
385 -> 386 ;
387 [label="CRIM <= 6.907\nsquared_error = 1.345\nsamples = 13\nvalue = 14.292", fillcolor="#fae5d6"] ;
386 -> 387 ;
388 [label="B <= 395.65\nsquared_error = 1.058\nsamples = 7\nvalue = 14.986", fillcolor="#f9e3d3"] ;
387 -> 388 ;
389 [label="LSTAT <= 18.065\nsquared_error = 0.663\nsamples = 6\nvalue = 14.7", fillcolor="#f9e4d4"] ;
388 -> 389 ;
390 [label="DIS <= 2.342\nsquared_error = 0.422\nsamples = 4\nvalue = 15.125", fillcolor="#f9e3d2"] ;
389 -> 390 ;
391 [label="RM <= 6.388\nsquared_error = 0.14\nsamples = 3\nvalue = 14.8", fillcolor="#f9e4d4"] ;
390 -> 391 ;
392 [label="TAX <= 688.5\nsquared_error = 0.022\nsamples = 2\nvalue = 15.05", fillcolor="#f9e3d3"] ;
391 -> 392 ;
393 [label="squared_error = 0.0\nsamples = 1\nvalue = 14.9", fillcolor="#f9e3d3"] ;
392 -> 393 ;
394 [label="squared_error = -0.0\nsamples = 1\nvalue = 15.2", fillcolor="#f9e2d2"] ;
392 -> 394 ;
395 [label="squared_error = 0.0\nsamples = 1\nvalue = 14.3", fillcolor="#fae5d6"] ;
391 -> 395 ;
396 [label="squared_error = 0.0\nsamples = 1\nvalue = 16.1", fillcolor="#f9e0ce"] ;
390 -> 396 ;
397 [label="CRIM <= 2.429\nsquared_error = 0.062\nsamples = 2\nvalue = 13.85", fillcolor="#fae6d8"] ;
389 -> 397 ;
398 [label="squared_error = 0.0\nsamples = 1\nvalue = 13.6", fillcolor="#fae7d9"] ;
397 -> 398 ;
399 [label="squared_error = 0.0\nsamples = 1\nvalue = 14.1", fillcolor="#fae6d7"] ;
397 -> 399 ;
400 [label="squared_error = 0.0\nsamples = 1\nvalue = 16.7", fillcolor="#f8decc"] ;
388 -> 400 ;
401 [label="RM <= 6.218\nsquared_error = 0.465\nsamples = 6\nvalue = 13.483", fillcolor="#fae7da"] ;
387 -> 401 ;
402 [label="RM <= 6.06\nsquared_error = 0.202\nsamples = 3\nvalue = 14.067", fillcolor="#fae6d7"] ;
401 -> 402 ;
403 [label="squared_error = 0.0\nsamples = 1\nvalue = 13.5", fillcolor="#fae7da"] ;
402 -> 403 ;
404 [label="CRIM <= 9.781\nsquared_error = 0.062\nsamples = 2\nvalue = 14.35", fillcolor="#fae5d6"] ;
402 -> 404 ;
405 [label="squared_error = 0.0\nsamples = 1\nvalue = 14.1", fillcolor="#fae6d7"] ;
404 -> 405 ;
406 [label="squared_error = -0.0\nsamples = 1\nvalue = 14.6", fillcolor="#f9e4d5"] ;
404 -> 406 ;
407 [label="DIS <= 2.191\nsquared_error = 0.047\nsamples = 3\nvalue = 12.9", fillcolor="#fae9dc"] ;
401 -> 407 ;
408 [label="AGE <= 98.55\nsquared_error = 0.002\nsamples = 2\nvalue = 13.05", fillcolor="#fae8dc"] ;
407 -> 408 ;
409 [label="squared_error = 0.0\nsamples = 1\nvalue = 13.0", fillcolor="#fae9dc"] ;
408 -> 409 ;
410 [label="squared_error = -0.0\nsamples = 1\nvalue = 13.1", fillcolor="#fae8db"] ;
408 -> 410 ;
411 [label="squared_error = -0.0\nsamples = 1\nvalue = 12.6", fillcolor="#fbeade"] ;
407 -> 411 ;
412 [label="CRIM <= 10.527\nsquared_error = 0.422\nsamples = 2\nvalue = 16.05", fillcolor="#f9e0ce"] ;
386 -> 412 ;
413 [label="squared_error = 0.0\nsamples = 1\nvalue = 15.4", fillcolor="#f9e2d1"] ;
412 -> 413 ;
414 [label="squared_error = -0.0\nsamples = 1\nvalue = 16.7", fillcolor="#f8decc"] ;
412 -> 414 ;
415 [label="squared_error = 0.0\nsamples = 1\nvalue = 17.8", fillcolor="#f8dbc7"] ;
385 -> 415 ;
416 [label="AGE <= 94.15\nsquared_error = 0.749\nsamples = 3\nvalue = 10.567", fillcolor="#fcefe7"] ;
370 -> 416 ;
417 [label="LSTAT <= 17.63\nsquared_error = 0.16\nsamples = 2\nvalue = 10.0", fillcolor="#fcf1e9"] ;
416 -> 417 ;
418 [label="squared_error = 0.0\nsamples = 1\nvalue = 10.4", fillcolor="#fcf0e7"] ;
417 -> 418 ;
419 [label="squared_error = -0.0\nsamples = 1\nvalue = 9.6", fillcolor="#fcf2eb"] ;
417 -> 419 ;
420 [label="squared_error = 0.0\nsamples = 1\nvalue = 11.7", fillcolor="#fbece2"] ;
416 -> 420 ;
421 [label="TAX <= 551.5\nsquared_error = 8.063\nsamples = 36\nvalue = 10.228", fillcolor="#fcf0e8"] ;
369 -> 421 ;
422 [label="DIS <= 1.379\nsquared_error = 1.637\nsamples = 6\nvalue = 14.1", fillcolor="#fae6d7"] ;
421 -> 422 ;
423 [label="LSTAT <= 28.055\nsquared_error = 0.64\nsamples = 2\nvalue = 12.6", fillcolor="#fbeade"] ;
422 -> 423 ;
424 [label="squared_error = 0.0\nsamples = 1\nvalue = 13.4", fillcolor="#fae7da"] ;
423 -> 424 ;
425 [label="squared_error = -0.0\nsamples = 1\nvalue = 11.8", fillcolor="#fbece1"] ;
423 -> 425 ;
426 [label="INDUS <= 20.735\nsquared_error = 0.448\nsamples = 4\nvalue = 14.85", fillcolor="#f9e3d4"] ;
422 -> 426 ;
427 [label="LSTAT <= 23.935\nsquared_error = 0.01\nsamples = 2\nvalue = 15.5", fillcolor="#f9e2d1"] ;
426 -> 427 ;
428 [label="squared_error = 0.0\nsamples = 1\nvalue = 15.4", fillcolor="#f9e2d1"] ;
427 -> 428 ;
429 [label="squared_error = 0.0\nsamples = 1\nvalue = 15.6", fillcolor="#f9e1d0"] ;
427 -> 429 ;
430 [label="AGE <= 96.8\nsquared_error = 0.04\nsamples = 2\nvalue = 14.2", fillcolor="#fae5d7"] ;
426 -> 430 ;
431 [label="squared_error = 0.0\nsamples = 1\nvalue = 14.0", fillcolor="#fae6d7"] ;
430 -> 431 ;
432 [label="squared_error = 0.0\nsamples = 1\nvalue = 14.4", fillcolor="#fae5d6"] ;
430 -> 432 ;
433 [label="CRIM <= 16.343\nsquared_error = 5.75\nsamples = 30\nvalue = 9.453", fillcolor="#fcf3eb"] ;
421 -> 433 ;
434 [label="B <= 346.765\nsquared_error = 5.096\nsamples = 21\nvalue = 10.229", fillcolor="#fcf0e8"] ;
433 -> 434 ;
435 [label="DIS <= 1.925\nsquared_error = 3.831\nsamples = 11\nvalue = 8.9", fillcolor="#fdf4ee"] ;
434 -> 435 ;
436 [label="CRIM <= 11.323\nsquared_error = 1.404\nsamples = 9\nvalue = 8.167", fillcolor="#fdf6f1"] ;
435 -> 436 ;
437 [label="B <= 328.295\nsquared_error = 0.437\nsamples = 4\nvalue = 7.225", fillcolor="#fef9f5"] ;
436 -> 437 ;
438 [label="DIS <= 1.821\nsquared_error = 0.09\nsamples = 2\nvalue = 7.8", fillcolor="#fdf7f3"] ;
437 -> 438 ;
439 [label="squared_error = 0.0\nsamples = 1\nvalue = 7.5", fillcolor="#fef8f4"] ;
438 -> 439 ;
440 [label="squared_error = 0.0\nsamples = 1\nvalue = 8.1", fillcolor="#fdf6f1"] ;
438 -> 440 ;
441 [label="RM <= 5.633\nsquared_error = 0.123\nsamples = 2\nvalue = 6.65", fillcolor="#fefaf8"] ;
437 -> 441 ;
442 [label="squared_error = 0.0\nsamples = 1\nvalue = 7.0", fillcolor="#fef9f6"] ;
441 -> 442 ;
443 [label="squared_error = -0.0\nsamples = 1\nvalue = 6.3", fillcolor="#fefbf9"] ;
441 -> 443 ;
444 [label="B <= 154.735\nsquared_error = 0.902\nsamples = 5\nvalue = 8.92", fillcolor="#fdf4ee"] ;
436 -> 444 ;
445 [label="AGE <= 97.7\nsquared_error = 0.023\nsamples = 4\nvalue = 8.45", fillcolor="#fdf5f0"] ;
444 -> 445 ;
446 [label="DIS <= 1.865\nsquared_error = 0.002\nsamples = 3\nvalue = 8.367", fillcolor="#fdf6f0"] ;
445 -> 446 ;
447 [label="squared_error = 0.0\nsamples = 2\nvalue = 8.4", fillcolor="#fdf5f0"] ;
446 -> 447 ;
448 [label="squared_error = 0.0\nsamples = 1\nvalue = 8.3", fillcolor="#fdf6f0"] ;
446 -> 448 ;
449 [label="squared_error = -0.0\nsamples = 1\nvalue = 8.7", fillcolor="#fdf5ef"] ;
445 -> 449 ;
450 [label="squared_error = -0.0\nsamples = 1\nvalue = 10.8", fillcolor="#fcefe5"] ;
444 -> 450 ;
451 [label="CRIM <= 9.264\nsquared_error = 1.44\nsamples = 2\nvalue = 12.2", fillcolor="#fbebdf"] ;
435 -> 451 ;
452 [label="squared_error = 0.0\nsamples = 1\nvalue = 11.0", fillcolor="#fceee5"] ;
451 -> 452 ;
453 [label="squared_error = 0.0\nsamples = 1\nvalue = 13.4", fillcolor="#fae7da"] ;
451 -> 453 ;
454 [label="DIS <= 1.439\nsquared_error = 2.411\nsamples = 10\nvalue = 11.69", fillcolor="#fbece2"] ;
434 -> 454 ;
455 [label="CRIM <= 10.466\nsquared_error = 0.062\nsamples = 2\nvalue = 13.55", fillcolor="#fae7d9"] ;
454 -> 455 ;
456 [label="squared_error = 0.0\nsamples = 1\nvalue = 13.3", fillcolor="#fae8da"] ;
455 -> 456 ;
457 [label="squared_error = 0.0\nsamples = 1\nvalue = 13.8", fillcolor="#fae6d8"] ;
455 -> 457 ;
458 [label="AGE <= 96.5\nsquared_error = 1.917\nsamples = 8\nvalue = 11.225", fillcolor="#fbeee4"] ;
454 -> 458 ;
459 [label="CRIM <= 7.631\nsquared_error = 0.023\nsamples = 2\nvalue = 12.65", fillcolor="#fbeadd"] ;
458 -> 459 ;
460 [label="squared_error = 0.0\nsamples = 1\nvalue = 12.5", fillcolor="#fbeade"] ;
459 -> 460 ;
461 [label="squared_error = 0.0\nsamples = 1\nvalue = 12.8", fillcolor="#fae9dd"] ;
459 -> 461 ;
462 [label="CRIM <= 8.43\nsquared_error = 1.646\nsamples = 6\nvalue = 10.75", fillcolor="#fcefe6"] ;
458 -> 462 ;
463 [label="squared_error = 0.0\nsamples = 1\nvalue = 8.5", fillcolor="#fdf5f0"] ;
462 -> 463 ;
464 [label="RM <= 5.17\nsquared_error = 0.76\nsamples = 5\nvalue = 11.2", fillcolor="#fbeee4"] ;
462 -> 464 ;
465 [label="squared_error = 0.0\nsamples = 1\nvalue = 9.7", fillcolor="#fcf2ea"] ;
464 -> 465 ;
466 [label="DIS <= 1.61\nsquared_error = 0.247\nsamples = 4\nvalue = 11.575", fillcolor="#fbede2"] ;
464 -> 466 ;
467 [label="AGE <= 99.55\nsquared_error = 0.04\nsamples = 2\nvalue = 11.1", fillcolor="#fbeee4"] ;
466 -> 467 ;
468 [label="squared_error = 0.0\nsamples = 1\nvalue = 10.9", fillcolor="#fceee5"] ;
467 -> 468 ;
469 [label="squared_error = -0.0\nsamples = 1\nvalue = 11.3", fillcolor="#fbede3"] ;
467 -> 469 ;
470 [label="CRIM <= 12.31\nsquared_error = 0.003\nsamples = 2\nvalue = 12.05", fillcolor="#fbebe0"] ;
466 -> 470 ;
471 [label="squared_error = 0.0\nsamples = 1\nvalue = 12.1", fillcolor="#fbebe0"] ;
470 -> 471 ;
472 [label="squared_error = -0.0\nsamples = 1\nvalue = 12.0", fillcolor="#fbebe0"] ;
470 -> 472 ;
473 [label="DIS <= 1.426\nsquared_error = 2.6\nsamples = 9\nvalue = 7.644", fillcolor="#fdf8f3"] ;
433 -> 473 ;
474 [label="squared_error = 0.0\nsamples = 1\nvalue = 5.0", fillcolor="#ffffff"] ;
473 -> 474 ;
475 [label="RM <= 5.972\nsquared_error = 1.942\nsamples = 8\nvalue = 7.975", fillcolor="#fdf7f2"] ;
473 -> 475 ;
476 [label="LSTAT <= 30.72\nsquared_error = 1.298\nsamples = 7\nvalue = 8.314", fillcolor="#fdf6f0"] ;
475 -> 476 ;
477 [label="B <= 363.18\nsquared_error = 0.622\nsamples = 4\nvalue = 9.15", fillcolor="#fdf3ed"] ;
476 -> 477 ;
478 [label="AGE <= 88.3\nsquared_error = 0.02\nsamples = 3\nvalue = 8.7", fillcolor="#fdf5ef"] ;
477 -> 478 ;
479 [label="squared_error = 0.0\nsamples = 1\nvalue = 8.5", fillcolor="#fdf5f0"] ;
478 -> 479 ;
480 [label="squared_error = 0.0\nsamples = 2\nvalue = 8.8", fillcolor="#fdf4ee"] ;
478 -> 480 ;
481 [label="squared_error = -0.0\nsamples = 1\nvalue = 10.5", fillcolor="#fcf0e7"] ;
477 -> 481 ;
482 [label="RM <= 4.76\nsquared_error = 0.027\nsamples = 3\nvalue = 7.2", fillcolor="#fef9f5"] ;
476 -> 482 ;
483 [label="squared_error = 0.0\nsamples = 1\nvalue = 7.0", fillcolor="#fef9f6"] ;
482 -> 483 ;
484 [label="CRIM <= 19.704\nsquared_error = 0.01\nsamples = 2\nvalue = 7.3", fillcolor="#fef9f5"] ;
482 -> 484 ;
485 [label="squared_error = 0.0\nsamples = 1\nvalue = 7.2", fillcolor="#fef9f5"] ;
484 -> 485 ;
486 [label="squared_error = -0.0\nsamples = 1\nvalue = 7.4", fillcolor="#fef8f4"] ;
484 -> 486 ;
487 [label="squared_error = -0.0\nsamples = 1\nvalue = 5.6", fillcolor="#fffdfc"] ;
475 -> 487 ;
488 [label="RM <= 7.435\nsquared_error = 65.914\nsamples = 43\nvalue = 39.014", fillcolor="#eba069"] ;
0 -> 488 [labeldistance=2.5, labelangle=-45, headlabel="False"] ;
489 [label="TAX <= 534.0\nsquared_error = 27.102\nsamples = 22\nvalue = 33.559", fillcolor="#eeaf81"] ;
488 -> 489 ;
490 [label="TAX <= 267.0\nsquared_error = 14.908\nsamples = 21\nvalue = 32.776", fillcolor="#efb185"] ;
489 -> 490 ;
491 [label="CRIM <= 0.744\nsquared_error = 4.168\nsamples = 11\nvalue = 35.064", fillcolor="#eeab7b"] ;
490 -> 491 ;
492 [label="CRIM <= 0.046\nsquared_error = 2.768\nsamples = 10\nvalue = 35.47", fillcolor="#edaa79"] ;
491 -> 492 ;
493 [label="PTRATIO <= 18.45\nsquared_error = 0.665\nsamples = 4\nvalue = 34.0", fillcolor="#eeae7f"] ;
492 -> 493 ;
494 [label="CRIM <= 0.03\nsquared_error = 0.01\nsamples = 2\nvalue = 34.8", fillcolor="#eeac7c"] ;
493 -> 494 ;
495 [label="squared_error = 0.0\nsamples = 1\nvalue = 34.7", fillcolor="#eeac7c"] ;
494 -> 495 ;
496 [label="squared_error = 0.0\nsamples = 1\nvalue = 34.9", fillcolor="#eeab7b"] ;
494 -> 496 ;
497 [label="CRIM <= 0.026\nsquared_error = 0.04\nsamples = 2\nvalue = 33.2", fillcolor="#efb083"] ;
493 -> 497 ;
498 [label="squared_error = 0.0\nsamples = 1\nvalue = 33.0", fillcolor="#efb184"] ;
497 -> 498 ;
499 [label="squared_error = -0.0\nsamples = 1\nvalue = 33.4", fillcolor="#efaf82"] ;
497 -> 499 ;
500 [label="LSTAT <= 8.845\nsquared_error = 1.769\nsamples = 6\nvalue = 36.45", fillcolor="#eda775"] ;
492 -> 500 ;
501 [label="RAD <= 4.5\nsquared_error = 0.438\nsamples = 5\nvalue = 36.98", fillcolor="#eda572"] ;
500 -> 501 ;
502 [label="CRIM <= 0.085\nsquared_error = 0.096\nsamples = 3\nvalue = 37.467", fillcolor="#eca470"] ;
501 -> 502 ;
503 [label="ZN <= 40.0\nsquared_error = 0.003\nsamples = 2\nvalue = 37.25", fillcolor="#eca571"] ;
502 -> 503 ;
504 [label="squared_error = 0.0\nsamples = 1\nvalue = 37.2", fillcolor="#eca571"] ;
503 -> 504 ;
505 [label="squared_error = 0.0\nsamples = 1\nvalue = 37.3", fillcolor="#eca571"] ;
503 -> 505 ;
506 [label="squared_error = -0.0\nsamples = 1\nvalue = 37.9", fillcolor="#eca36e"] ;
502 -> 506 ;
507 [label="DIS <= 1.912\nsquared_error = 0.062\nsamples = 2\nvalue = 36.25", fillcolor="#eda876"] ;
501 -> 507 ;
508 [label="squared_error = 0.0\nsamples = 1\nvalue = 36.0", fillcolor="#eda877"] ;
507 -> 508 ;
509 [label="squared_error = 0.0\nsamples = 1\nvalue = 36.5", fillcolor="#eda774"] ;
507 -> 509 ;
510 [label="squared_error = -0.0\nsamples = 1\nvalue = 33.8", fillcolor="#eeae80"] ;
500 -> 510 ;
511 [label="squared_error = 0.0\nsamples = 1\nvalue = 31.0", fillcolor="#f0b68d"] ;
491 -> 511 ;
512 [label="AGE <= 78.95\nsquared_error = 14.634\nsamples = 10\nvalue = 30.26", fillcolor="#f0b890"] ;
490 -> 512 ;
513 [label="CRIM <= 0.042\nsquared_error = 5.044\nsamples = 8\nvalue = 31.887", fillcolor="#efb489"] ;
512 -> 513 ;
514 [label="LSTAT <= 4.505\nsquared_error = 0.776\nsamples = 3\nvalue = 34.133", fillcolor="#eead7f"] ;
513 -> 514 ;
515 [label="squared_error = 0.0\nsamples = 1\nvalue = 32.9", fillcolor="#efb184"] ;
514 -> 515 ;
516 [label="PTRATIO <= 14.8\nsquared_error = 0.023\nsamples = 2\nvalue = 34.75", fillcolor="#eeac7c"] ;
514 -> 516 ;
517 [label="squared_error = 0.0\nsamples = 1\nvalue = 34.6", fillcolor="#eeac7d"] ;
516 -> 517 ;
518 [label="squared_error = 0.0\nsamples = 1\nvalue = 34.9", fillcolor="#eeab7b"] ;
516 -> 518 ;
519 [label="CRIM <= 0.062\nsquared_error = 2.762\nsamples = 5\nvalue = 30.54", fillcolor="#f0b78f"] ;
513 -> 519 ;
520 [label="RM <= 7.093\nsquared_error = 0.482\nsamples = 3\nvalue = 29.333", fillcolor="#f1bb94"] ;
519 -> 520 ;
521 [label="RM <= 7.06\nsquared_error = 0.022\nsamples = 2\nvalue = 28.85", fillcolor="#f1bc96"] ;
520 -> 521 ;
522 [label="squared_error = 0.0\nsamples = 1\nvalue = 29.0", fillcolor="#f1bc95"] ;
521 -> 522 ;
523 [label="squared_error = -0.0\nsamples = 1\nvalue = 28.7", fillcolor="#f1bd97"] ;
521 -> 523 ;
524 [label="squared_error = 0.0\nsamples = 1\nvalue = 30.3", fillcolor="#f0b890"] ;
520 -> 524 ;
525 [label="RAD <= 5.0\nsquared_error = 0.722\nsamples = 2\nvalue = 32.35", fillcolor="#efb287"] ;
519 -> 525 ;
526 [label="squared_error = 0.0\nsamples = 1\nvalue = 33.2", fillcolor="#efb083"] ;
525 -> 526 ;
527 [label="squared_error = 0.0\nsamples = 1\nvalue = 31.5", fillcolor="#f0b58a"] ;
525 -> 527 ;
528 [label="CRIM <= 0.059\nsquared_error = 0.022\nsamples = 2\nvalue = 23.75", fillcolor="#f4caac"] ;
512 -> 528 ;
529 [label="squared_error = 0.0\nsamples = 1\nvalue = 23.6", fillcolor="#f4cbad"] ;
528 -> 529 ;
530 [label="squared_error = 0.0\nsamples = 1\nvalue = 23.9", fillcolor="#f4caac"] ;
528 -> 530 ;
531 [label="squared_error = -0.0\nsamples = 1\nvalue = 50.0", fillcolor="#e58139"] ;
489 -> 531 ;
532 [label="PTRATIO <= 19.65\nsquared_error = 42.746\nsamples = 21\nvalue = 44.729", fillcolor="#e89050"] ;
488 -> 532 ;
533 [label="PTRATIO <= 17.6\nsquared_error = 17.523\nsamples = 20\nvalue = 45.87", fillcolor="#e78d4b"] ;
532 -> 533 ;
534 [label="DIS <= 2.093\nsquared_error = 9.759\nsamples = 16\nvalue = 47.238", fillcolor="#e78945"] ;
533 -> 534 ;
535 [label="squared_error = 0.0\nsamples = 4\nvalue = 50.0", fillcolor="#e58139"] ;
534 -> 535 ;
536 [label="RM <= 7.628\nsquared_error = 9.62\nsamples = 12\nvalue = 46.317", fillcolor="#e78b49"] ;
534 -> 536 ;
537 [label="B <= 387.355\nsquared_error = 0.482\nsamples = 3\nvalue = 43.133", fillcolor="#e99457"] ;
536 -> 537 ;
538 [label="squared_error = 0.0\nsamples = 1\nvalue = 44.0", fillcolor="#e89253"] ;
537 -> 538 ;
539 [label="RM <= 7.565\nsquared_error = 0.16\nsamples = 2\nvalue = 42.7", fillcolor="#e99559"] ;
537 -> 539 ;
540 [label="squared_error = 0.0\nsamples = 1\nvalue = 43.1", fillcolor="#e99457"] ;
539 -> 540 ;
541 [label="squared_error = -0.0\nsamples = 1\nvalue = 42.3", fillcolor="#e9975b"] ;
539 -> 541 ;
542 [label="INDUS <= 3.005\nsquared_error = 8.162\nsamples = 9\nvalue = 47.378", fillcolor="#e78845"] ;
536 -> 542 ;
543 [label="AGE <= 32.6\nsquared_error = 0.422\nsamples = 4\nvalue = 49.625", fillcolor="#e5823b"] ;
542 -> 543 ;
544 [label="squared_error = 0.0\nsamples = 3\nvalue = 50.0", fillcolor="#e58139"] ;
543 -> 544 ;
545 [label="squared_error = 0.0\nsamples = 1\nvalue = 48.5", fillcolor="#e68540"] ;
543 -> 545 ;
546 [label="AGE <= 80.65\nsquared_error = 7.082\nsamples = 5\nvalue = 45.58", fillcolor="#e88d4c"] ;
542 -> 546 ;
547 [label="CRIM <= 0.445\nsquared_error = 2.747\nsamples = 4\nvalue = 44.475", fillcolor="#e89051"] ;
546 -> 547 ;
548 [label="PTRATIO <= 16.15\nsquared_error = 0.24\nsamples = 3\nvalue = 45.4", fillcolor="#e88e4d"] ;
547 -> 548 ;
549 [label="B <= 382.19\nsquared_error = 0.09\nsamples = 2\nvalue = 45.7", fillcolor="#e78d4c"] ;
548 -> 549 ;
550 [label="squared_error = 0.0\nsamples = 1\nvalue = 46.0", fillcolor="#e78c4b"] ;
549 -> 550 ;
551 [label="squared_error = -0.0\nsamples = 1\nvalue = 45.4", fillcolor="#e88e4d"] ;
549 -> 551 ;
552 [label="squared_error = 0.0\nsamples = 1\nvalue = 44.8", fillcolor="#e89050"] ;
548 -> 552 ;
553 [label="squared_error = -0.0\nsamples = 1\nvalue = 41.7", fillcolor="#ea985e"] ;
547 -> 553 ;
554 [label="squared_error = 0.0\nsamples = 1\nvalue = 50.0", fillcolor="#e58139"] ;
546 -> 554 ;
555 [label="B <= 392.15\nsquared_error = 11.18\nsamples = 4\nvalue = 40.4", fillcolor="#eb9c63"] ;
533 -> 555 ;
556 [label="squared_error = 0.0\nsamples = 1\nvalue = 35.2", fillcolor="#eeaa7a"] ;
555 -> 556 ;
557 [label="AGE <= 60.1\nsquared_error = 2.889\nsamples = 3\nvalue = 42.133", fillcolor="#ea975c"] ;
555 -> 557 ;
558 [label="PTRATIO <= 18.55\nsquared_error = 0.25\nsamples = 2\nvalue = 43.3", fillcolor="#e99456"] ;
557 -> 558 ;
559 [label="squared_error = 0.0\nsamples = 1\nvalue = 43.8", fillcolor="#e99254"] ;
558 -> 559 ;
560 [label="squared_error = -0.0\nsamples = 1\nvalue = 42.8", fillcolor="#e99559"] ;
558 -> 560 ;
561 [label="squared_error = 0.0\nsamples = 1\nvalue = 39.8", fillcolor="#eb9e66"] ;
557 -> 561 ;
562 [label="squared_error = 0.0\nsamples = 1\nvalue = 21.9", fillcolor="#f5d0b5"] ;
532 -> 562 ;
}